digraph Tree {
node [shape=box, fontname="helvetica"] ;
edge [fontname="helvetica"] ;
0 [label="total day charge <= 44.805\nsquared_error = 0.123\nsamples = 2499\nvalue = 0.143"] ;
1 [label="customer service calls <= 3.5\nsquared_error = 0.101\nsamples = 2333\nvalue = 0.114"] ;
0 -> 1 [labeldistance=2.5, labelangle=45, headlabel="True"] ;
2 [label="international plan <= 0.5\nsquared_error = 0.073\nsamples = 2145\nvalue = 0.079"] ;
1 -> 2 ;
3 [label="total day minutes <= 223.25\nsquared_error = 0.046\nsamples = 1950\nvalue = 0.049"] ;
2 -> 3 ;
4 [label="total eve charge <= 29.0\nsquared_error = 0.027\nsamples = 1673\nvalue = 0.027"] ;
3 -> 4 ;
5 [label="total night charge <= 15.91\nsquared_error = 0.026\nsamples = 1667\nvalue = 0.026"] ;
4 -> 5 ;
6 [label="number vmail messages <= 47.5\nsquared_error = 0.025\nsamples = 1662\nvalue = 0.026"] ;
5 -> 6 ;
7 [label="total eve charge <= 14.345\nsquared_error = 0.025\nsamples = 1657\nvalue = 0.025"] ;
6 -> 7 ;
8 [label="account length <= 146.5\nsquared_error = 0.011\nsamples = 467\nvalue = 0.011"] ;
7 -> 8 ;
9 [label="account length <= 25.5\nsquared_error = 0.005\nsamples = 410\nvalue = 0.005"] ;
8 -> 9 ;
10 [label="total day calls <= 73.5\nsquared_error = 0.083\nsamples = 11\nvalue = 0.091"] ;
9 -> 10 ;
11 [label="squared_error = 0.0\nsamples = 1\nvalue = 1.0"] ;
10 -> 11 ;
12 [label="squared_error = 0.0\nsamples = 10\nvalue = 0.0"] ;
10 -> 12 ;
13 [label="total eve charge <= 6.445\nsquared_error = 0.002\nsamples = 399\nvalue = 0.003"] ;
9 -> 13 ;
14 [label="total eve minutes <= 74.95\nsquared_error = 0.076\nsamples = 12\nvalue = 0.083"] ;
13 -> 14 ;
15 [label="squared_error = 0.0\nsamples = 11\nvalue = 0.0"] ;
14 -> 15 ;
16 [label="squared_error = 0.0\nsamples = 1\nvalue = 1.0"] ;
14 -> 16 ;
17 [label="squared_error = 0.0\nsamples = 387\nvalue = 0.0"] ;
13 -> 17 ;
18 [label="account length <= 147.5\nsquared_error = 0.05\nsamples = 57\nvalue = 0.053"] ;
8 -> 18 ;
19 [label="number vmail messages <= 17.5\nsquared_error = 0.222\nsamples = 3\nvalue = 0.333"] ;
18 -> 19 ;
20 [label="squared_error = 0.0\nsamples = 2\nvalue = 0.0"] ;
19 -> 20 ;
21 [label="squared_error = 0.0\nsamples = 1\nvalue = 1.0"] ;
19 -> 21 ;
22 [label="total day calls <= 69.5\nsquared_error = 0.036\nsamples = 54\nvalue = 0.037"] ;
18 -> 22 ;
23 [label="total night calls <= 109.5\nsquared_error = 0.222\nsamples = 3\nvalue = 0.333"] ;
22 -> 23 ;
24 [label="squared_error = 0.0\nsamples = 2\nvalue = 0.0"] ;
23 -> 24 ;
25 [label="squared_error = 0.0\nsamples = 1\nvalue = 1.0"] ;
23 -> 25 ;
26 [label="total day minutes <= 99.0\nsquared_error = 0.019\nsamples = 51\nvalue = 0.02"] ;
22 -> 26 ;
27 [label="total night minutes <= 206.55\nsquared_error = 0.188\nsamples = 4\nvalue = 0.25"] ;
26 -> 27 ;
28 [label="squared_error = 0.0\nsamples = 3\nvalue = 0.0"] ;
27 -> 28 ;
29 [label="squared_error = 0.0\nsamples = 1\nvalue = 1.0"] ;
27 -> 29 ;
30 [label="squared_error = 0.0\nsamples = 47\nvalue = 0.0"] ;
26 -> 30 ;
31 [label="total eve minutes <= 169.25\nsquared_error = 0.03\nsamples = 1190\nvalue = 0.031"] ;
7 -> 31 ;
32 [label="account length <= 134.0\nsquared_error = 0.222\nsamples = 6\nvalue = 0.333"] ;
31 -> 32 ;
33 [label="total intl charge <= 2.605\nsquared_error = 0.222\nsamples = 3\nvalue = 0.667"] ;
32 -> 33 ;
34 [label="squared_error = 0.0\nsamples = 2\nvalue = 1.0"] ;
33 -> 34 ;
35 [label="squared_error = 0.0\nsamples = 1\nvalue = 0.0"] ;
33 -> 35 ;
36 [label="squared_error = 0.0\nsamples = 3\nvalue = 0.0"] ;
32 -> 36 ;
37 [label="total day charge <= 35.795\nsquared_error = 0.029\nsamples = 1184\nvalue = 0.03"] ;
31 -> 37 ;
38 [label="total night calls <= 104.5\nsquared_error = 0.025\nsamples = 1070\nvalue = 0.025"] ;
37 -> 38 ;
39 [label="total day calls <= 146.5\nsquared_error = 0.014\nsamples = 624\nvalue = 0.014"] ;
38 -> 39 ;
40 [label="total eve minutes <= 225.85\nsquared_error = 0.013\nsamples = 619\nvalue = 0.013"] ;
39 -> 40 ;
41 [label="total eve minutes <= 225.55\nsquared_error = 0.022\nsamples = 356\nvalue = 0.022"] ;
40 -> 41 ;
42 [label="total night minutes <= 255.6\nsquared_error = 0.019\nsamples = 355\nvalue = 0.02"] ;
41 -> 42 ;
43 [label="total day calls <= 125.5\nsquared_error = 0.013\nsamples = 306\nvalue = 0.013"] ;
42 -> 43 ;
44 [label="total eve minutes <= 209.05\nsquared_error = 0.007\nsamples = 278\nvalue = 0.007"] ;
43 -> 44 ;
45 [label="squared_error = 0.0\nsamples = 193\nvalue = 0.0"] ;
44 -> 45 ;
46 [label="total eve minutes <= 209.15\nsquared_error = 0.023\nsamples = 85\nvalue = 0.024"] ;
44 -> 46 ;
47 [label="total day calls <= 104.5\nsquared_error = 0.222\nsamples = 3\nvalue = 0.333"] ;
46 -> 47 ;
48 [label="squared_error = 0.0\nsamples = 2\nvalue = 0.0"] ;
47 -> 48 ;
49 [label="squared_error = 0.0\nsamples = 1\nvalue = 1.0"] ;
47 -> 49 ;
50 [label="total day calls <= 85.5\nsquared_error = 0.012\nsamples = 82\nvalue = 0.012"] ;
46 -> 50 ;
51 [label="number vmail messages <= 25.5\nsquared_error = 0.062\nsamples = 15\nvalue = 0.067"] ;
50 -> 51 ;
52 [label="squared_error = 0.0\nsamples = 13\nvalue = 0.0"] ;
51 -> 52 ;
53 [label="total night charge <= 9.875\nsquared_error = 0.25\nsamples = 2\nvalue = 0.5"] ;
51 -> 53 ;
54 [label="squared_error = 0.0\nsamples = 1\nvalue = 1.0"] ;
53 -> 54 ;
55 [label="squared_error = 0.0\nsamples = 1\nvalue = 0.0"] ;
53 -> 55 ;
56 [label="squared_error = 0.0\nsamples = 67\nvalue = 0.0"] ;
50 -> 56 ;
57 [label="total day calls <= 127.0\nsquared_error = 0.066\nsamples = 28\nvalue = 0.071"] ;
43 -> 57 ;
58 [label="squared_error = 0.0\nsamples = 1\nvalue = 1.0"] ;
57 -> 58 ;
59 [label="total day calls <= 129.5\nsquared_error = 0.036\nsamples = 27\nvalue = 0.037"] ;
57 -> 59 ;
60 [label="total day minutes <= 136.45\nsquared_error = 0.222\nsamples = 3\nvalue = 0.333"] ;
59 -> 60 ;
61 [label="squared_error = 0.0\nsamples = 2\nvalue = 0.0"] ;
60 -> 61 ;
62 [label="squared_error = 0.0\nsamples = 1\nvalue = 1.0"] ;
60 -> 62 ;
63 [label="squared_error = 0.0\nsamples = 24\nvalue = 0.0"] ;
59 -> 63 ;
64 [label="total night calls <= 102.5\nsquared_error = 0.057\nsamples = 49\nvalue = 0.061"] ;
42 -> 64 ;
65 [label="total night charge <= 11.515\nsquared_error = 0.04\nsamples = 48\nvalue = 0.042"] ;
64 -> 65 ;
66 [label="squared_error = 0.0\nsamples = 1\nvalue = 1.0"] ;
65 -> 66 ;
67 [label="total intl charge <= 3.7\nsquared_error = 0.021\nsamples = 47\nvalue = 0.021"] ;
65 -> 67 ;
68 [label="squared_error = 0.0\nsamples = 42\nvalue = 0.0"] ;
67 -> 68 ;
69 [label="customer service calls <= 0.5\nsquared_error = 0.16\nsamples = 5\nvalue = 0.2"] ;
67 -> 69 ;
70 [label="squared_error = 0.0\nsamples = 1\nvalue = 1.0"] ;
69 -> 70 ;
71 [label="squared_error = 0.0\nsamples = 4\nvalue = 0.0"] ;
69 -> 71 ;
72 [label="squared_error = 0.0\nsamples = 1\nvalue = 1.0"] ;
64 -> 72 ;
73 [label="squared_error = 0.0\nsamples = 1\nvalue = 1.0"] ;
41 -> 73 ;
74 [label="squared_error = 0.0\nsamples = 263\nvalue = 0.0"] ;
40 -> 74 ;
75 [label="total eve minutes <= 216.35\nsquared_error = 0.16\nsamples = 5\nvalue = 0.2"] ;
39 -> 75 ;
76 [label="squared_error = 0.0\nsamples = 1\nvalue = 1.0"] ;
75 -> 76 ;
77 [label="squared_error = 0.0\nsamples = 4\nvalue = 0.0"] ;
75 -> 77 ;
78 [label="account length <= 151.5\nsquared_error = 0.039\nsamples = 446\nvalue = 0.04"] ;
38 -> 78 ;
79 [label="total intl minutes <= 15.4\nsquared_error = 0.031\nsamples = 403\nvalue = 0.032"] ;
78 -> 79 ;
80 [label="total day calls <= 106.5\nsquared_error = 0.027\nsamples = 392\nvalue = 0.028"] ;
79 -> 80 ;
81 [label="total night charge <= 13.285\nsquared_error = 0.039\nsamples = 268\nvalue = 0.041"] ;
80 -> 81 ;
82 [label="total eve calls <= 73.5\nsquared_error = 0.036\nsamples = 264\nvalue = 0.038"] ;
81 -> 82 ;
83 [label="total night calls <= 117.0\nsquared_error = 0.106\nsamples = 25\nvalue = 0.12"] ;
82 -> 83 ;
84 [label="squared_error = 0.0\nsamples = 13\nvalue = 0.0"] ;
83 -> 84 ;
85 [label="total eve calls <= 65.5\nsquared_error = 0.188\nsamples = 12\nvalue = 0.25"] ;
83 -> 85 ;
86 [label="squared_error = 0.0\nsamples = 6\nvalue = 0.0"] ;
85 -> 86 ;
87 [label="total eve minutes <= 217.15\nsquared_error = 0.25\nsamples = 6\nvalue = 0.5"] ;
85 -> 87 ;
88 [label="squared_error = 0.0\nsamples = 2\nvalue = 0.0"] ;
87 -> 88 ;
89 [label="total night minutes <= 170.25\nsquared_error = 0.188\nsamples = 4\nvalue = 0.75"] ;
87 -> 89 ;
90 [label="squared_error = 0.0\nsamples = 1\nvalue = 0.0"] ;
89 -> 90 ;
91 [label="squared_error = 0.0\nsamples = 3\nvalue = 1.0"] ;
89 -> 91 ;
92 [label="total day charge <= 20.155\nsquared_error = 0.028\nsamples = 239\nvalue = 0.029"] ;
82 -> 92 ;
93 [label="total day minutes <= 117.7\nsquared_error = 0.086\nsamples = 42\nvalue = 0.095"] ;
92 -> 93 ;
94 [label="total day calls <= 105.5\nsquared_error = 0.068\nsamples = 41\nvalue = 0.073"] ;
93 -> 94 ;
95 [label="total night calls <= 106.5\nsquared_error = 0.048\nsamples = 40\nvalue = 0.05"] ;
94 -> 95 ;
96 [label="total day minutes <= 99.25\nsquared_error = 0.25\nsamples = 2\nvalue = 0.5"] ;
95 -> 96 ;
97 [label="squared_error = 0.0\nsamples = 1\nvalue = 1.0"] ;
96 -> 97 ;
98 [label="squared_error = 0.0\nsamples = 1\nvalue = 0.0"] ;
96 -> 98 ;
99 [label="number vmail messages <= 38.0\nsquared_error = 0.026\nsamples = 38\nvalue = 0.026"] ;
95 -> 99 ;
100 [label="squared_error = 0.0\nsamples = 35\nvalue = 0.0"] ;
99 -> 100 ;
101 [label="customer service calls <= 1.5\nsquared_error = 0.222\nsamples = 3\nvalue = 0.333"] ;
99 -> 101 ;
102 [label="squared_error = 0.0\nsamples = 2\nvalue = 0.0"] ;
101 -> 102 ;
103 [label="squared_error = 0.0\nsamples = 1\nvalue = 1.0"] ;
101 -> 103 ;
104 [label="squared_error = 0.0\nsamples = 1\nvalue = 1.0"] ;
94 -> 104 ;
105 [label="squared_error = 0.0\nsamples = 1\nvalue = 1.0"] ;
93 -> 105 ;
106 [label="total eve minutes <= 171.5\nsquared_error = 0.015\nsamples = 197\nvalue = 0.015"] ;
92 -> 106 ;
107 [label="total eve minutes <= 170.8\nsquared_error = 0.16\nsamples = 5\nvalue = 0.2"] ;
106 -> 107 ;
108 [label="squared_error = 0.0\nsamples = 4\nvalue = 0.0"] ;
107 -> 108 ;
109 [label="squared_error = 0.0\nsamples = 1\nvalue = 1.0"] ;
107 -> 109 ;
110 [label="total eve charge <= 21.085\nsquared_error = 0.01\nsamples = 192\nvalue = 0.01"] ;
106 -> 110 ;
111 [label="squared_error = 0.0\nsamples = 144\nvalue = 0.0"] ;
110 -> 111 ;
112 [label="total eve charge <= 21.105\nsquared_error = 0.04\nsamples = 48\nvalue = 0.042"] ;
110 -> 112 ;
113 [label="squared_error = 0.0\nsamples = 1\nvalue = 1.0"] ;
112 -> 113 ;
114 [label="total night minutes <= 254.9\nsquared_error = 0.021\nsamples = 47\nvalue = 0.021"] ;
112 -> 114 ;
115 [label="squared_error = 0.0\nsamples = 41\nvalue = 0.0"] ;
114 -> 115 ;
116 [label="total night charge <= 11.69\nsquared_error = 0.139\nsamples = 6\nvalue = 0.167"] ;
114 -> 116 ;
117 [label="squared_error = 0.0\nsamples = 1\nvalue = 1.0"] ;
116 -> 117 ;
118 [label="squared_error = 0.0\nsamples = 5\nvalue = 0.0"] ;
116 -> 118 ;
119 [label="total night minutes <= 299.9\nsquared_error = 0.188\nsamples = 4\nvalue = 0.25"] ;
81 -> 119 ;
120 [label="squared_error = 0.0\nsamples = 1\nvalue = 1.0"] ;
119 -> 120 ;
121 [label="squared_error = 0.0\nsamples = 3\nvalue = 0.0"] ;
119 -> 121 ;
122 [label="squared_error = 0.0\nsamples = 124\nvalue = 0.0"] ;
80 -> 122 ;
123 [label="total intl minutes <= 15.8\nsquared_error = 0.149\nsamples = 11\nvalue = 0.182"] ;
79 -> 123 ;
124 [label="total night charge <= 12.21\nsquared_error = 0.222\nsamples = 3\nvalue = 0.667"] ;
123 -> 124 ;
125 [label="squared_error = 0.0\nsamples = 2\nvalue = 1.0"] ;
124 -> 125 ;
126 [label="squared_error = 0.0\nsamples = 1\nvalue = 0.0"] ;
124 -> 126 ;
127 [label="squared_error = 0.0\nsamples = 8\nvalue = 0.0"] ;
123 -> 127 ;
128 [label="total eve calls <= 128.5\nsquared_error = 0.103\nsamples = 43\nvalue = 0.116"] ;
78 -> 128 ;
129 [label="account length <= 155.5\nsquared_error = 0.069\nsamples = 40\nvalue = 0.075"] ;
128 -> 129 ;
130 [label="total day minutes <= 161.25\nsquared_error = 0.234\nsamples = 8\nvalue = 0.375"] ;
129 -> 130 ;
131 [label="squared_error = 0.0\nsamples = 2\nvalue = 1.0"] ;
130 -> 131 ;
132 [label="total eve charge <= 16.415\nsquared_error = 0.139\nsamples = 6\nvalue = 0.167"] ;
130 -> 132 ;
133 [label="squared_error = 0.0\nsamples = 1\nvalue = 1.0"] ;
132 -> 133 ;
134 [label="squared_error = 0.0\nsamples = 5\nvalue = 0.0"] ;
132 -> 134 ;
135 [label="squared_error = 0.0\nsamples = 32\nvalue = 0.0"] ;
129 -> 135 ;
136 [label="total intl calls <= 3.5\nsquared_error = 0.222\nsamples = 3\nvalue = 0.667"] ;
128 -> 136 ;
137 [label="squared_error = 0.0\nsamples = 1\nvalue = 0.0"] ;
136 -> 137 ;
138 [label="squared_error = 0.0\nsamples = 2\nvalue = 1.0"] ;
136 -> 138 ;
139 [label="total day charge <= 35.81\nsquared_error = 0.065\nsamples = 114\nvalue = 0.07"] ;
37 -> 139 ;
140 [label="squared_error = 0.0\nsamples = 1\nvalue = 1.0"] ;
139 -> 140 ;
141 [label="total eve minutes <= 303.35\nsquared_error = 0.058\nsamples = 113\nvalue = 0.062"] ;
139 -> 141 ;
142 [label="total day charge <= 36.37\nsquared_error = 0.051\nsamples = 111\nvalue = 0.054"] ;
141 -> 142 ;
143 [label="total day minutes <= 213.85\nsquared_error = 0.119\nsamples = 29\nvalue = 0.138"] ;
142 -> 143 ;
144 [label="total eve charge <= 15.455\nsquared_error = 0.096\nsamples = 28\nvalue = 0.107"] ;
143 -> 144 ;
145 [label="squared_error = 0.0\nsamples = 1\nvalue = 1.0"] ;
144 -> 145 ;
146 [label="total day calls <= 125.5\nsquared_error = 0.069\nsamples = 27\nvalue = 0.074"] ;
144 -> 146 ;
147 [label="total eve calls <= 136.5\nsquared_error = 0.037\nsamples = 26\nvalue = 0.038"] ;
146 -> 147 ;
148 [label="squared_error = 0.0\nsamples = 24\nvalue = 0.0"] ;
147 -> 148 ;
149 [label="total intl charge <= 2.875\nsquared_error = 0.25\nsamples = 2\nvalue = 0.5"] ;
147 -> 149 ;
150 [label="squared_error = 0.0\nsamples = 1\nvalue = 1.0"] ;
149 -> 150 ;
151 [label="squared_error = 0.0\nsamples = 1\nvalue = 0.0"] ;
149 -> 151 ;
152 [label="squared_error = 0.0\nsamples = 1\nvalue = 1.0"] ;
146 -> 152 ;
153 [label="squared_error = 0.0\nsamples = 1\nvalue = 1.0"] ;
143 -> 153 ;
154 [label="number vmail messages <= 41.5\nsquared_error = 0.024\nsamples = 82\nvalue = 0.024"] ;
142 -> 154 ;
155 [label="total eve minutes <= 285.6\nsquared_error = 0.012\nsamples = 79\nvalue = 0.013"] ;
154 -> 155 ;
156 [label="squared_error = 0.0\nsamples = 74\nvalue = 0.0"] ;
155 -> 156 ;
157 [label="total day minutes <= 221.95\nsquared_error = 0.16\nsamples = 5\nvalue = 0.2"] ;
155 -> 157 ;
158 [label="squared_error = 0.0\nsamples = 4\nvalue = 0.0"] ;
157 -> 158 ;
159 [label="squared_error = 0.0\nsamples = 1\nvalue = 1.0"] ;
157 -> 159 ;
160 [label="total day calls <= 118.5\nsquared_error = 0.222\nsamples = 3\nvalue = 0.333"] ;
154 -> 160 ;
161 [label="squared_error = 0.0\nsamples = 2\nvalue = 0.0"] ;
160 -> 161 ;
162 [label="squared_error = 0.0\nsamples = 1\nvalue = 1.0"] ;
160 -> 162 ;
163 [label="total intl calls <= 2.5\nsquared_error = 0.25\nsamples = 2\nvalue = 0.5"] ;
141 -> 163 ;
164 [label="squared_error = 0.0\nsamples = 1\nvalue = 1.0"] ;
163 -> 164 ;
165 [label="squared_error = 0.0\nsamples = 1\nvalue = 0.0"] ;
163 -> 165 ;
166 [label="total intl calls <= 3.0\nsquared_error = 0.16\nsamples = 5\nvalue = 0.2"] ;
6 -> 166 ;
167 [label="squared_error = 0.0\nsamples = 1\nvalue = 1.0"] ;
166 -> 167 ;
168 [label="squared_error = 0.0\nsamples = 4\nvalue = 0.0"] ;
166 -> 168 ;
169 [label="total eve calls <= 73.5\nsquared_error = 0.16\nsamples = 5\nvalue = 0.2"] ;
5 -> 169 ;
170 [label="squared_error = 0.0\nsamples = 1\nvalue = 1.0"] ;
169 -> 170 ;
171 [label="squared_error = 0.0\nsamples = 4\nvalue = 0.0"] ;
169 -> 171 ;
172 [label="total night minutes <= 230.9\nsquared_error = 0.222\nsamples = 6\nvalue = 0.333"] ;
4 -> 172 ;
173 [label="squared_error = 0.0\nsamples = 4\nvalue = 0.0"] ;
172 -> 173 ;
174 [label="squared_error = 0.0\nsamples = 2\nvalue = 1.0"] ;
172 -> 174 ;
175 [label="total eve charge <= 22.67\nsquared_error = 0.146\nsamples = 277\nvalue = 0.177"] ;
3 -> 175 ;
176 [label="total night charge <= 9.085\nsquared_error = 0.099\nsamples = 250\nvalue = 0.112"] ;
175 -> 176 ;
177 [label="account length <= 25.5\nsquared_error = 0.037\nsamples = 130\nvalue = 0.038"] ;
176 -> 177 ;
178 [label="total eve calls <= 111.0\nsquared_error = 0.24\nsamples = 5\nvalue = 0.4"] ;
177 -> 178 ;
179 [label="squared_error = 0.0\nsamples = 2\nvalue = 1.0"] ;
178 -> 179 ;
180 [label="squared_error = 0.0\nsamples = 3\nvalue = 0.0"] ;
178 -> 180 ;
181 [label="account length <= 54.0\nsquared_error = 0.023\nsamples = 125\nvalue = 0.024"] ;
177 -> 181 ;
182 [label="total eve charge <= 11.71\nsquared_error = 0.116\nsamples = 15\nvalue = 0.133"] ;
181 -> 182 ;
183 [label="squared_error = 0.0\nsamples = 1\nvalue = 1.0"] ;
182 -> 183 ;
184 [label="total day minutes <= 261.0\nsquared_error = 0.066\nsamples = 14\nvalue = 0.071"] ;
182 -> 184 ;
185 [label="squared_error = 0.0\nsamples = 13\nvalue = 0.0"] ;
184 -> 185 ;
186 [label="squared_error = 0.0\nsamples = 1\nvalue = 1.0"] ;
184 -> 186 ;
187 [label="total eve calls <= 131.5\nsquared_error = 0.009\nsamples = 110\nvalue = 0.009"] ;
181 -> 187 ;
188 [label="squared_error = 0.0\nsamples = 106\nvalue = 0.0"] ;
187 -> 188 ;
189 [label="account length <= 121.0\nsquared_error = 0.188\nsamples = 4\nvalue = 0.25"] ;
187 -> 189 ;
190 [label="squared_error = 0.0\nsamples = 3\nvalue = 0.0"] ;
189 -> 190 ;
191 [label="squared_error = 0.0\nsamples = 1\nvalue = 1.0"] ;
189 -> 191 ;
192 [label="total day minutes <= 245.1\nsquared_error = 0.155\nsamples = 120\nvalue = 0.192"] ;
176 -> 192 ;
193 [label="total night minutes <= 205.4\nsquared_error = 0.084\nsamples = 86\nvalue = 0.093"] ;
192 -> 193 ;
194 [label="total day charge <= 38.74\nsquared_error = 0.222\nsamples = 3\nvalue = 0.667"] ;
193 -> 194 ;
195 [label="squared_error = 0.0\nsamples = 2\nvalue = 1.0"] ;
194 -> 195 ;
196 [label="squared_error = 0.0\nsamples = 1\nvalue = 0.0"] ;
194 -> 196 ;
197 [label="total eve minutes <= 240.15\nsquared_error = 0.067\nsamples = 83\nvalue = 0.072"] ;
193 -> 197 ;
198 [label="total eve calls <= 106.5\nsquared_error = 0.04\nsamples = 71\nvalue = 0.042"] ;
197 -> 198 ;
199 [label="squared_error = 0.0\nsamples = 42\nvalue = 0.0"] ;
198 -> 199 ;
200 [label="account length <= 129.5\nsquared_error = 0.093\nsamples = 29\nvalue = 0.103"] ;
198 -> 200 ;
201 [label="total night charge <= 13.405\nsquared_error = 0.04\nsamples = 24\nvalue = 0.042"] ;
200 -> 201 ;
202 [label="squared_error = 0.0\nsamples = 22\nvalue = 0.0"] ;
201 -> 202 ;
203 [label="total intl charge <= 3.065\nsquared_error = 0.25\nsamples = 2\nvalue = 0.5"] ;
201 -> 203 ;
204 [label="squared_error = 0.0\nsamples = 1\nvalue = 0.0"] ;
203 -> 204 ;
205 [label="squared_error = 0.0\nsamples = 1\nvalue = 1.0"] ;
203 -> 205 ;
206 [label="area code <= 462.5\nsquared_error = 0.24\nsamples = 5\nvalue = 0.4"] ;
200 -> 206 ;
207 [label="squared_error = 0.0\nsamples = 3\nvalue = 0.0"] ;
206 -> 207 ;
208 [label="squared_error = 0.0\nsamples = 2\nvalue = 1.0"] ;
206 -> 208 ;
209 [label="total day charge <= 40.34\nsquared_error = 0.188\nsamples = 12\nvalue = 0.25"] ;
197 -> 209 ;
210 [label="squared_error = 0.0\nsamples = 7\nvalue = 0.0"] ;
209 -> 210 ;
211 [label="number vmail messages <= 11.5\nsquared_error = 0.24\nsamples = 5\nvalue = 0.6"] ;
209 -> 211 ;
212 [label="squared_error = 0.0\nsamples = 3\nvalue = 1.0"] ;
211 -> 212 ;
213 [label="squared_error = 0.0\nsamples = 2\nvalue = 0.0"] ;
211 -> 213 ;
214 [label="total eve charge <= 17.01\nsquared_error = 0.247\nsamples = 34\nvalue = 0.441"] ;
192 -> 214 ;
215 [label="total night minutes <= 290.55\nsquared_error = 0.059\nsamples = 16\nvalue = 0.062"] ;
214 -> 215 ;
216 [label="squared_error = 0.0\nsamples = 15\nvalue = 0.0"] ;
215 -> 216 ;
217 [label="squared_error = 0.0\nsamples = 1\nvalue = 1.0"] ;
215 -> 217 ;
218 [label="number vmail messages <= 12.0\nsquared_error = 0.173\nsamples = 18\nvalue = 0.778"] ;
214 -> 218 ;
219 [label="total eve calls <= 80.5\nsquared_error = 0.062\nsamples = 15\nvalue = 0.933"] ;
218 -> 219 ;
220 [label="total day calls <= 85.0\nsquared_error = 0.25\nsamples = 2\nvalue = 0.5"] ;
219 -> 220 ;
221 [label="squared_error = 0.0\nsamples = 1\nvalue = 0.0"] ;
220 -> 221 ;
222 [label="squared_error = 0.0\nsamples = 1\nvalue = 1.0"] ;
220 -> 222 ;
223 [label="squared_error = 0.0\nsamples = 13\nvalue = 1.0"] ;
219 -> 223 ;
224 [label="squared_error = 0.0\nsamples = 3\nvalue = 0.0"] ;
218 -> 224 ;
225 [label="voice mail plan <= 0.5\nsquared_error = 0.173\nsamples = 27\nvalue = 0.778"] ;
175 -> 225 ;
226 [label="total eve charge <= 22.86\nsquared_error = 0.043\nsamples = 22\nvalue = 0.955"] ;
225 -> 226 ;
227 [label="total day charge <= 41.015\nsquared_error = 0.25\nsamples = 2\nvalue = 0.5"] ;
226 -> 227 ;
228 [label="squared_error = 0.0\nsamples = 1\nvalue = 0.0"] ;
227 -> 228 ;
229 [label="squared_error = 0.0\nsamples = 1\nvalue = 1.0"] ;
227 -> 229 ;
230 [label="squared_error = 0.0\nsamples = 20\nvalue = 1.0"] ;
226 -> 230 ;
231 [label="squared_error = 0.0\nsamples = 5\nvalue = 0.0"] ;
225 -> 231 ;
232 [label="total intl calls <= 2.5\nsquared_error = 0.235\nsamples = 195\nvalue = 0.379"] ;
2 -> 232 ;
233 [label="squared_error = 0.0\nsamples = 36\nvalue = 1.0"] ;
232 -> 233 ;
234 [label="total intl charge <= 3.535\nsquared_error = 0.182\nsamples = 159\nvalue = 0.239"] ;
232 -> 234 ;
235 [label="total day charge <= 42.825\nsquared_error = 0.038\nsamples = 126\nvalue = 0.04"] ;
234 -> 235 ;
236 [label="total night minutes <= 84.4\nsquared_error = 0.017\nsamples = 118\nvalue = 0.017"] ;
235 -> 236 ;
237 [label="squared_error = 0.0\nsamples = 1\nvalue = 1.0"] ;
236 -> 237 ;
238 [label="total eve minutes <= 344.0\nsquared_error = 0.008\nsamples = 117\nvalue = 0.009"] ;
236 -> 238 ;
239 [label="squared_error = 0.0\nsamples = 116\nvalue = 0.0"] ;
238 -> 239 ;
240 [label="squared_error = 0.0\nsamples = 1\nvalue = 1.0"] ;
238 -> 240 ;
241 [label="total eve calls <= 111.5\nsquared_error = 0.234\nsamples = 8\nvalue = 0.375"] ;
235 -> 241 ;
242 [label="total intl minutes <= 8.35\nsquared_error = 0.139\nsamples = 6\nvalue = 0.167"] ;
241 -> 242 ;
243 [label="squared_error = 0.0\nsamples = 1\nvalue = 1.0"] ;
242 -> 243 ;
244 [label="squared_error = 0.0\nsamples = 5\nvalue = 0.0"] ;
242 -> 244 ;
245 [label="squared_error = 0.0\nsamples = 2\nvalue = 1.0"] ;
241 -> 245 ;
246 [label="squared_error = 0.0\nsamples = 33\nvalue = 1.0"] ;
234 -> 246 ;
247 [label="total day minutes <= 173.55\nsquared_error = 0.25\nsamples = 188\nvalue = 0.511"] ;
1 -> 247 ;
248 [label="total eve charge <= 16.22\nsquared_error = 0.148\nsamples = 100\nvalue = 0.82"] ;
247 -> 248 ;
249 [label="squared_error = 0.0\nsamples = 48\nvalue = 1.0"] ;
248 -> 249 ;
250 [label="total day minutes <= 151.65\nsquared_error = 0.226\nsamples = 52\nvalue = 0.654"] ;
248 -> 250 ;
251 [label="total intl calls <= 6.5\nsquared_error = 0.083\nsamples = 33\nvalue = 0.909"] ;
250 -> 251 ;
252 [label="squared_error = 0.0\nsamples = 27\nvalue = 1.0"] ;
251 -> 252 ;
253 [label="total day charge <= 21.37\nsquared_error = 0.25\nsamples = 6\nvalue = 0.5"] ;
251 -> 253 ;
254 [label="squared_error = 0.0\nsamples = 3\nvalue = 1.0"] ;
253 -> 254 ;
255 [label="squared_error = 0.0\nsamples = 3\nvalue = 0.0"] ;
253 -> 255 ;
256 [label="total eve charge <= 18.0\nsquared_error = 0.166\nsamples = 19\nvalue = 0.211"] ;
250 -> 256 ;
257 [label="total eve minutes <= 197.1\nsquared_error = 0.245\nsamples = 7\nvalue = 0.571"] ;
256 -> 257 ;
258 [label="squared_error = 0.0\nsamples = 3\nvalue = 0.0"] ;
257 -> 258 ;
259 [label="squared_error = 0.0\nsamples = 4\nvalue = 1.0"] ;
257 -> 259 ;
260 [label="squared_error = 0.0\nsamples = 12\nvalue = 0.0"] ;
256 -> 260 ;
261 [label="total eve minutes <= 138.5\nsquared_error = 0.134\nsamples = 88\nvalue = 0.159"] ;
247 -> 261 ;
262 [label="total eve calls <= 125.0\nsquared_error = 0.222\nsamples = 9\nvalue = 0.667"] ;
261 -> 262 ;
263 [label="total intl calls <= 6.0\nsquared_error = 0.122\nsamples = 7\nvalue = 0.857"] ;
262 -> 263 ;
264 [label="squared_error = 0.0\nsamples = 6\nvalue = 1.0"] ;
263 -> 264 ;
265 [label="squared_error = 0.0\nsamples = 1\nvalue = 0.0"] ;
263 -> 265 ;
266 [label="squared_error = 0.0\nsamples = 2\nvalue = 0.0"] ;
262 -> 266 ;
267 [label="international plan <= 0.5\nsquared_error = 0.091\nsamples = 79\nvalue = 0.101"] ;
261 -> 267 ;
268 [label="total day calls <= 144.5\nsquared_error = 0.054\nsamples = 70\nvalue = 0.057"] ;
267 -> 268 ;
269 [label="total night calls <= 120.5\nsquared_error = 0.042\nsamples = 69\nvalue = 0.043"] ;
268 -> 269 ;
270 [label="account length <= 45.0\nsquared_error = 0.016\nsamples = 62\nvalue = 0.016"] ;
269 -> 270 ;
271 [label="total night calls <= 106.5\nsquared_error = 0.16\nsamples = 5\nvalue = 0.2"] ;
270 -> 271 ;
272 [label="squared_error = 0.0\nsamples = 4\nvalue = 0.0"] ;
271 -> 272 ;
273 [label="squared_error = 0.0\nsamples = 1\nvalue = 1.0"] ;
271 -> 273 ;
274 [label="squared_error = 0.0\nsamples = 57\nvalue = 0.0"] ;
270 -> 274 ;
275 [label="total intl charge <= 2.415\nsquared_error = 0.204\nsamples = 7\nvalue = 0.286"] ;
269 -> 275 ;
276 [label="total eve calls <= 104.5\nsquared_error = 0.222\nsamples = 3\nvalue = 0.667"] ;
275 -> 276 ;
277 [label="squared_error = 0.0\nsamples = 2\nvalue = 1.0"] ;
276 -> 277 ;
278 [label="squared_error = 0.0\nsamples = 1\nvalue = 0.0"] ;
276 -> 278 ;
279 [label="squared_error = 0.0\nsamples = 4\nvalue = 0.0"] ;
275 -> 279 ;
280 [label="squared_error = 0.0\nsamples = 1\nvalue = 1.0"] ;
268 -> 280 ;
281 [label="total intl calls <= 3.5\nsquared_error = 0.247\nsamples = 9\nvalue = 0.444"] ;
267 -> 281 ;
282 [label="squared_error = 0.0\nsamples = 3\nvalue = 1.0"] ;
281 -> 282 ;
283 [label="total day minutes <= 187.5\nsquared_error = 0.139\nsamples = 6\nvalue = 0.167"] ;
281 -> 283 ;
284 [label="squared_error = 0.0\nsamples = 1\nvalue = 1.0"] ;
283 -> 284 ;
285 [label="squared_error = 0.0\nsamples = 5\nvalue = 0.0"] ;
283 -> 285 ;
286 [label="number vmail messages <= 6.5\nsquared_error = 0.246\nsamples = 166\nvalue = 0.56"] ;
0 -> 286 [labeldistance=2.5, labelangle=-45, headlabel="False"] ;
287 [label="total eve minutes <= 184.65\nsquared_error = 0.198\nsamples = 121\nvalue = 0.727"] ;
286 -> 287 ;
288 [label="total day minutes <= 311.2\nsquared_error = 0.219\nsamples = 40\nvalue = 0.325"] ;
287 -> 288 ;
289 [label="total night charge <= 9.465\nsquared_error = 0.163\nsamples = 34\nvalue = 0.206"] ;
288 -> 289 ;
290 [label="account length <= 164.5\nsquared_error = 0.045\nsamples = 21\nvalue = 0.048"] ;
289 -> 290 ;
291 [label="squared_error = 0.0\nsamples = 20\nvalue = 0.0"] ;
290 -> 291 ;
292 [label="squared_error = 0.0\nsamples = 1\nvalue = 1.0"] ;
290 -> 292 ;
293 [label="total eve minutes <= 135.55\nsquared_error = 0.249\nsamples = 13\nvalue = 0.462"] ;
289 -> 293 ;
294 [label="squared_error = 0.0\nsamples = 5\nvalue = 0.0"] ;
293 -> 294 ;
295 [label="total intl minutes <= 8.25\nsquared_error = 0.188\nsamples = 8\nvalue = 0.75"] ;
293 -> 295 ;
296 [label="squared_error = 0.0\nsamples = 1\nvalue = 0.0"] ;
295 -> 296 ;
297 [label="total night calls <= 72.5\nsquared_error = 0.122\nsamples = 7\nvalue = 0.857"] ;
295 -> 297 ;
298 [label="squared_error = 0.0\nsamples = 1\nvalue = 0.0"] ;
297 -> 298 ;
299 [label="squared_error = 0.0\nsamples = 6\nvalue = 1.0"] ;
297 -> 299 ;
300 [label="squared_error = 0.0\nsamples = 6\nvalue = 1.0"] ;
288 -> 300 ;
301 [label="total night minutes <= 114.5\nsquared_error = 0.069\nsamples = 81\nvalue = 0.926"] ;
287 -> 301 ;
302 [label="total intl calls <= 2.5\nsquared_error = 0.188\nsamples = 4\nvalue = 0.25"] ;
301 -> 302 ;
303 [label="squared_error = 0.0\nsamples = 1\nvalue = 1.0"] ;
302 -> 303 ;
304 [label="squared_error = 0.0\nsamples = 3\nvalue = 0.0"] ;
302 -> 304 ;
305 [label="total day calls <= 147.5\nsquared_error = 0.037\nsamples = 77\nvalue = 0.961"] ;
301 -> 305 ;
306 [label="total night minutes <= 127.0\nsquared_error = 0.026\nsamples = 76\nvalue = 0.974"] ;
305 -> 306 ;
307 [label="total night charge <= 5.425\nsquared_error = 0.222\nsamples = 3\nvalue = 0.667"] ;
306 -> 307 ;
308 [label="squared_error = 0.0\nsamples = 2\nvalue = 1.0"] ;
307 -> 308 ;
309 [label="squared_error = 0.0\nsamples = 1\nvalue = 0.0"] ;
307 -> 309 ;
310 [label="total night calls <= 67.5\nsquared_error = 0.014\nsamples = 73\nvalue = 0.986"] ;
306 -> 310 ;
311 [label="total night charge <= 7.655\nsquared_error = 0.16\nsamples = 5\nvalue = 0.8"] ;
310 -> 311 ;
312 [label="squared_error = 0.0\nsamples = 1\nvalue = 0.0"] ;
311 -> 312 ;
313 [label="squared_error = 0.0\nsamples = 4\nvalue = 1.0"] ;
311 -> 313 ;
314 [label="squared_error = 0.0\nsamples = 68\nvalue = 1.0"] ;
310 -> 314 ;
315 [label="squared_error = 0.0\nsamples = 1\nvalue = 0.0"] ;
305 -> 315 ;
316 [label="international plan <= 0.5\nsquared_error = 0.099\nsamples = 45\nvalue = 0.111"] ;
286 -> 316 ;
317 [label="squared_error = 0.0\nsamples = 38\nvalue = 0.0"] ;
316 -> 317 ;
318 [label="total day minutes <= 280.0\nsquared_error = 0.204\nsamples = 7\nvalue = 0.714"] ;
316 -> 318 ;
319 [label="squared_error = 0.0\nsamples = 4\nvalue = 1.0"] ;
318 -> 319 ;
320 [label="total eve calls <= 87.5\nsquared_error = 0.222\nsamples = 3\nvalue = 0.333"] ;
318 -> 320 ;
321 [label="squared_error = 0.0\nsamples = 2\nvalue = 0.0"] ;
320 -> 321 ;
322 [label="squared_error = 0.0\nsamples = 1\nvalue = 1.0"] ;
320 -> 322 ;
}